Shutdown.py


import os

os.system("sudo shutdown -h now")




Modules

Shutdown.py


# -*- coding: utf-8-*-
import random
import re
import os

WORDS = ["SHUTDOWN"]


def handle(text, mic, profile):
    """
        Responds to user-input, typically speech text, by relaying the
        meaning of life.

        Arguments:
        text -- user-input, typically transcribed speech
        mic -- used to interact with the user (for both input and output)
        profile -- contains information related to the user (e.g., phone
                   number)
    """
    messages = ["Very well. Shutting down now."]

    mic.say(message)

    os.system("sudo shutdown -h now")

def isValid(text):
    """
        Returns True if the input is related to the meaning of life.

        Arguments:
        text -- user-input, typically transcribed speech
    """
    return bool(re.search(r'\shutdown\b', text, re.IGNORECASE))

Static

dictionary_persona.dic


APPLE   AE P AH L
BE      B IY
BEING   B IY IH NG
BUT     B AH T
DID     D IH D
EISA    EY S AH
FIRST   F ER S T
IN      IH N
IS      IH Z
IT      IH T
JASPER  JH AE S P ER
NOW     N AW
OF      AH V
ON      AA N
ON(2)   AO N
RIGHT   R AY T
SAY     S EY
SHUTDOWN        SH AH T D AW N
WHAT    W AH T
WHAT(2) HH W AH T
WHICH   W IH CH
WHICH(2)        HH W IH CH
WIKI    W IH K IY
WIKIPEDIA       W IH K IY P IY D IY AH
WITH    W IH DH
WITH(2) W IH TH
WORK    W ER K

keyword_phrases


APPLE
BE
BEING
BUT
DID
EISA
FIRST
IN
IS
IT
JASPER
NOW
OF
ON
RIGHT
SAY
SHUTDOWN
WHAT
WHICH
WIKI
WIKIPEDIA
WITH
WORK

languagemodel_persona.lm

Language model created by QuickLM on Thu Mar 23 12:51:11 EDT 2017
Copyright (c) 1996-2010 Carnegie Mellon University and Alexander I. Rudnicky

The model is in standard ARPA format, designed by Doug Paul while he was at MITRE.

The code that was used to produce this language model is available in Open Source.
Please visit http://www.speech.cs.cmu.edu/tools/ for more information

The (fixed) discount mass is 0.5. The backoffs are computed using the ratio metho$
This model based on a corpus of 23 sentences and 25 words

\data\
ngram 1=25
ngram 2=46
ngram 3=23

\1-grams:
-0.7782 </s> -0.3010
-0.7782 <s> -0.2218
-2.1399 APPLE -0.2218
-2.1399 BE -0.2218
-2.1399 BEING -0.2218
-2.1399 BUT -0.2218
-2.1399 DID -0.2218
-2.1399 EISA -0.2218
-2.1399 FIRST -0.2218
-2.1399 IN -0.2218
-2.1399 IS -0.2218
-2.1399 IT -0.2218
-2.1399 JASPER -0.2218
-2.1399 NOW -0.2218
-2.1399 OF -0.2218
-2.1399 ON -0.2218
-2.1399 RIGHT -0.2218
-2.1399 SAY -0.2218
-2.1399 SHUTDOWN -0.2218
-2.1399 WHAT -0.2218
-2.1399 WHICH -0.2218
-2.1399 WIKI -0.2218
-2.1399 WIKIPEDIA -0.2218
-2.1399 WITH -0.2218
-2.1399 WORK -0.2218

\2-grams:
-1.6628 <s> APPLE 0.0000
-1.6628 <s> BE 0.0000
-1.6628 <s> BEING 0.0000
-1.6628 <s> BUT 0.0000
-1.6628 <s> DID 0.0000
-1.6628 <s> EISA 0.0000
-1.6628 <s> FIRST 0.0000
-1.6628 <s> IN 0.0000
-1.6628 <s> IS 0.0000
-1.6628 <s> IT 0.0000
-1.6628 <s> JASPER 0.0000
-1.6628 <s> NOW 0.0000
-1.6628 <s> OF 0.0000
-1.6628 <s> ON 0.0000
-1.6628 <s> RIGHT 0.0000
-1.6628 <s> SAY 0.0000
-1.6628 <s> SHUTDOWN 0.0000
-1.6628 <s> WHAT 0.0000
-1.6628 <s> WHICH 0.0000
-1.6628 <s> WIKI 0.0000
-1.6628 <s> WIKIPEDIA 0.0000
-1.6628 <s> WITH 0.0000
-1.6628 <s> WORK 0.0000
-0.3010 APPLE </s> -0.3010
-0.3010 BE </s> -0.3010
-0.3010 BEING </s> -0.3010
-0.3010 BUT </s> -0.3010
-0.3010 DID </s> -0.3010
-0.3010 EISA </s> -0.3010
-0.3010 FIRST </s> -0.3010
-0.3010 IN </s> -0.3010
-0.3010 IS </s> -0.3010
-0.3010 IT </s> -0.3010
-0.3010 JASPER </s> -0.3010
-0.3010 NOW </s> -0.3010
-0.3010 OF </s> -0.3010
-0.3010 ON </s> -0.3010
-0.3010 RIGHT </s> -0.3010
-0.3010 SAY </s> -0.3010
-0.3010 SHUTDOWN </s> -0.3010
-0.3010 WHAT </s> -0.3010
-0.3010 WHICH </s> -0.3010
-0.3010 WIKI </s> -0.3010
-0.3010 WIKIPEDIA </s> -0.3010
-0.3010 WITH </s> -0.3010
-0.3010 WORK </s> -0.3010

\3-grams:
-0.3010 <s> APPLE </s>
-0.3010 <s> BE </s>
-0.3010 <s> BEING </s>
-0.3010 <s> BUT </s>
-0.3010 <s> DID </s>
-0.3010 <s> EISA </s>
-0.3010 <s> FIRST </s>
-0.3010 <s> IN </s>
-0.3010 <s> IS </s>
-0.3010 <s> IT </s>
-0.3010 <s> JASPER </s>
-0.3010 <s> NOW </s>
-0.3010 <s> OF </s>
-0.3010 <s> ON </s>
-0.3010 <s> RIGHT </s>
-0.3010 <s> SAY </s>
-0.3010 <s> SHUTDOWN </s>
-0.3010 <s> WHAT </s>
-0.3010 <s> WHICH </s>
-0.3010 <s> WIKI </s>
-0.3010 <s> WIKIPEDIA </s>
-0.3010 <s> WITH </s>
-0.3010 <s> WORK </s>

\end\





